Language model created by QuickLM on Thu Jul 11 11:22:20 EDT 2024
Copyright (c) 1996-2010 Carnegie Mellon University and Alexander I. Rudnicky

The model is in standard ARPA format, designed by Doug Paul while he was at MITRE.

The code that was used to produce this language model is available in Open Source.
Please visit http://www.speech.cs.cmu.edu/tools/ for more information

The (fixed) discount mass is 0.5. The backoffs are computed using the ratio method.
This model based on a corpus of 19 sentences and 18 words

\data\
ngram 1=18
ngram 2=35
ngram 3=37

\1-grams:
-0.8973 </s> -0.3010
-0.8973 <s> -0.2355
-2.1761 ANLAT -0.2422
-1.6990 BONCUK -0.2422
-1.8751 BRAVE -0.2422
-1.8751 CHROME -0.2422
-1.3310 CLOSE -0.2553
-1.8751 DOCKER -0.2422
-2.1761 FULL -0.2952
-2.1761 FıKRA -0.2981
-2.1761 HEY -0.2923
-2.1761 NAVIGATE -0.2422
-1.3979 OPEN -0.2648
-1.8751 POSTMAN -0.2422
-1.8751 RECORDER -0.2422
-1.8751 SAFARI -0.2422
-1.8751 SNAPSHOT -0.2422
-1.8751 TAKE -0.2923

\2-grams:
-1.5798 <s> BONCUK 0.0000
-0.7347 <s> CLOSE -0.0000
-1.5798 <s> FıKRA 0.0000
-1.5798 <s> HEY 0.0000
-1.5798 <s> NAVIGATE 0.0000
-0.8016 <s> OPEN 0.0000
-1.2788 <s> TAKE 0.0000
-0.3010 ANLAT </s> -0.3010
-0.3010 BONCUK </s> -0.3010
-0.3010 BRAVE </s> -0.3010
-0.3010 CHROME </s> -0.3010
-1.1461 CLOSE BONCUK 0.0000
-1.1461 CLOSE BRAVE 0.0000
-1.1461 CLOSE CHROME 0.0000
-1.1461 CLOSE DOCKER 0.0000
-1.1461 CLOSE POSTMAN 0.0000
-1.1461 CLOSE RECORDER 0.0000
-1.1461 CLOSE SAFARI 0.0000
-0.3010 DOCKER </s> -0.3010
-0.3010 FULL SNAPSHOT 0.0000
-0.3010 FıKRA ANLAT 0.0000
-0.3010 HEY BONCUK 0.0000
-0.3010 NAVIGATE </s> -0.3010
-1.0792 OPEN BRAVE 0.0000
-1.0792 OPEN CHROME 0.0000
-1.0792 OPEN DOCKER 0.0000
-1.0792 OPEN POSTMAN 0.0000
-1.0792 OPEN RECORDER 0.0000
-1.0792 OPEN SAFARI 0.0000
-0.3010 POSTMAN </s> -0.3010
-0.3010 RECORDER </s> -0.3010
-0.3010 SAFARI </s> -0.3010
-0.3010 SNAPSHOT </s> -0.3010
-0.6021 TAKE FULL 0.0000
-0.6021 TAKE SNAPSHOT 0.0000

\3-grams:
-0.3010 <s> BONCUK </s>
-1.1461 <s> CLOSE BONCUK
-1.1461 <s> CLOSE BRAVE
-1.1461 <s> CLOSE CHROME
-1.1461 <s> CLOSE DOCKER
-1.1461 <s> CLOSE POSTMAN
-1.1461 <s> CLOSE RECORDER
-1.1461 <s> CLOSE SAFARI
-0.3010 <s> FıKRA ANLAT
-0.3010 <s> HEY BONCUK
-0.3010 <s> NAVIGATE </s>
-1.0792 <s> OPEN BRAVE
-1.0792 <s> OPEN CHROME
-1.0792 <s> OPEN DOCKER
-1.0792 <s> OPEN POSTMAN
-1.0792 <s> OPEN RECORDER
-1.0792 <s> OPEN SAFARI
-0.6021 <s> TAKE FULL
-0.6021 <s> TAKE SNAPSHOT
-0.3010 CLOSE BONCUK </s>
-0.3010 CLOSE BRAVE </s>
-0.3010 CLOSE CHROME </s>
-0.3010 CLOSE DOCKER </s>
-0.3010 CLOSE POSTMAN </s>
-0.3010 CLOSE RECORDER </s>
-0.3010 CLOSE SAFARI </s>
-0.3010 FULL SNAPSHOT </s>
-0.3010 FıKRA ANLAT </s>
-0.3010 HEY BONCUK </s>
-0.3010 OPEN BRAVE </s>
-0.3010 OPEN CHROME </s>
-0.3010 OPEN DOCKER </s>
-0.3010 OPEN POSTMAN </s>
-0.3010 OPEN RECORDER </s>
-0.3010 OPEN SAFARI </s>
-0.3010 TAKE FULL SNAPSHOT
-0.3010 TAKE SNAPSHOT </s>

\end\