Language model created by QuickLM on Sat Jul  6 19:25:15 EDT 2024
Copyright (c) 1996-2010 Carnegie Mellon University and Alexander I. Rudnicky

The model is in standard ARPA format, designed by Doug Paul while he was at MITRE.

The code that was used to produce this language model is available in Open Source.
Please visit http://www.speech.cs.cmu.edu/tools/ for more information

The (fixed) discount mass is 0.5. The backoffs are computed using the ratio method.
This model based on a corpus of 18 sentences and 17 words

\data\
ngram 1=17
ngram 2=33
ngram 3=35

\1-grams:
-0.8970 </s> -0.3010
-0.8970 <s> -0.2351
-1.8513 BRAVE -0.2422
-1.8513 CHROME -0.2422
-1.3741 CLOSE -0.2627
-2.1523 CLOSING -0.2918
-1.8513 DOCKER -0.2422
-2.1523 FULL -0.2949
-2.1523 HEY -0.2918
-2.1523 NAVIGATE -0.2422
-1.6752 ONIX -0.2422
-1.3741 OPEN -0.2627
-1.8513 POSTMAN -0.2422
-1.8513 RECORDER -0.2422
-1.8513 SAFARI -0.2422
-1.8513 SNAPSHOT -0.2422
-1.8513 TAKE -0.2918

\2-grams:
-0.7782 <s> CLOSE 0.0000
-1.5563 <s> CLOSING 0.0000
-1.5563 <s> HEY 0.0000
-1.5563 <s> NAVIGATE 0.0000
-1.5563 <s> ONIX 0.0000
-0.7782 <s> OPEN 0.0000
-1.2553 <s> TAKE 0.0000
-0.3010 BRAVE </s> -0.3010
-0.3010 CHROME </s> -0.3010
-1.0792 CLOSE BRAVE 0.0000
-1.0792 CLOSE CHROME 0.0000
-1.0792 CLOSE DOCKER 0.0000
-1.0792 CLOSE POSTMAN 0.0000
-1.0792 CLOSE RECORDER 0.0000
-1.0792 CLOSE SAFARI 0.0000
-0.3010 CLOSING ONIX 0.0000
-0.3010 DOCKER </s> -0.3010
-0.3010 FULL SNAPSHOT 0.0000
-0.3010 HEY ONIX 0.0000
-0.3010 NAVIGATE </s> -0.3010
-0.3010 ONIX </s> -0.3010
-1.0792 OPEN BRAVE 0.0000
-1.0792 OPEN CHROME 0.0000
-1.0792 OPEN DOCKER 0.0000
-1.0792 OPEN POSTMAN 0.0000
-1.0792 OPEN RECORDER 0.0000
-1.0792 OPEN SAFARI 0.0000
-0.3010 POSTMAN </s> -0.3010
-0.3010 RECORDER </s> -0.3010
-0.3010 SAFARI </s> -0.3010
-0.3010 SNAPSHOT </s> -0.3010
-0.6021 TAKE FULL 0.0000
-0.6021 TAKE SNAPSHOT 0.0000

\3-grams:
-1.0792 <s> CLOSE BRAVE
-1.0792 <s> CLOSE CHROME
-1.0792 <s> CLOSE DOCKER
-1.0792 <s> CLOSE POSTMAN
-1.0792 <s> CLOSE RECORDER
-1.0792 <s> CLOSE SAFARI
-0.3010 <s> CLOSING ONIX
-0.3010 <s> HEY ONIX
-0.3010 <s> NAVIGATE </s>
-0.3010 <s> ONIX </s>
-1.0792 <s> OPEN BRAVE
-1.0792 <s> OPEN CHROME
-1.0792 <s> OPEN DOCKER
-1.0792 <s> OPEN POSTMAN
-1.0792 <s> OPEN RECORDER
-1.0792 <s> OPEN SAFARI
-0.6021 <s> TAKE FULL
-0.6021 <s> TAKE SNAPSHOT
-0.3010 CLOSE BRAVE </s>
-0.3010 CLOSE CHROME </s>
-0.3010 CLOSE DOCKER </s>
-0.3010 CLOSE POSTMAN </s>
-0.3010 CLOSE RECORDER </s>
-0.3010 CLOSE SAFARI </s>
-0.3010 CLOSING ONIX </s>
-0.3010 FULL SNAPSHOT </s>
-0.3010 HEY ONIX </s>
-0.3010 OPEN BRAVE </s>
-0.3010 OPEN CHROME </s>
-0.3010 OPEN DOCKER </s>
-0.3010 OPEN POSTMAN </s>
-0.3010 OPEN RECORDER </s>
-0.3010 OPEN SAFARI </s>
-0.3010 TAKE FULL SNAPSHOT
-0.3010 TAKE SNAPSHOT </s>

\end\